{"W1": [[-0.001836219353371205, -9.205859995191324e-05, -0.00010606613897595414, 0.0007772563381631562, -0.0009928834073556555], [-0.0008714615811702783, -3.940674964659553e-05, -4.6076105021112375e-05, 0.00036931828150348105, -0.0004751997705069777], [0.002147447176980977, 0.00010778277593456018, 0.00012453147342249429, -0.0009091764951247605, 0.0011609416122649054], [0.04001162108706239, 2.3382120468686236e-06, 0.3179748663884981, -0.08225240106284407, -0.01367866076242902], [-8.894705882296254, 0.002129590495089088, -0.006635281869226294, -0.001055788112540938, 0.0005521283095026274], [-2.848849140665096, 0.004233502863708013, 0.002711124287948166, -0.0052218158281250975, 0.0059385164221457095], [-6.637586211112056, -0.0006462725341952486, -0.0027436386215087287, 0.006883069797298703, 0.00025352764562331807], [-0.0017319198881014866, -8.677424862649472e-05, -9.989253639782623e-05, 0.0007330620963900724, -0.0009365678015080632], [-0.10257189488061325, 0.0005253909475817858, -0.05614631849296079, 0.36690518969110597, -0.012950705403672694], [0.005083644670432859, 0.00025235270219257705, 0.00030106777132573356, -0.002157125295632519, 0.0027479711162043145]], "W2": [[-6.010321411482559e-06, -2.6068003511877142e-06, 7.0734109544758864e-06, 2.2034639727648857, 0.22961603876209313, 0.2878289761142288, -0.32642494955059836, -5.656070660571021e-06, -2.1963547774625374, 1.750584153811092e-05]], "b1": [[-2.0113011804788547e-05], [-8.503990423042672e-06], [2.36342745094684e-05], [0.00792682677888484], [0.13844046298352286], [0.5845459299443994], [-1.3047713056877048], [-1.8935978032577358e-05], [-0.017386123088819413], [5.730952090477243e-05]], "b2": [[-0.19730538677468887]]}