{"W1": [[-0.001836220911769934, -9.206001725073723e-05, -0.00010606145820151936, 0.0007772493163054083, -0.0009928848359185608], [-0.0008714622694313459, -3.940736829351161e-05, -4.607408810756828e-05, 0.0003693152272771612, -0.0004752003774856153], [0.002147449005155637, 0.0001077844416836632, 0.00012452596031575972, -0.0009091682365299666, 0.0011609432997878838], [0.03969430179738655, -9.68460898771224e-05, 0.31753066851470513, -0.08236863283094717, -0.01349374489690554], [-8.894677440927554, 0.002432220250144418, -0.00598631929327979, -0.001440527007915597, 0.00031642846626994393], [-2.849128110478815, 0.003581534826392154, 0.002904086147247025, -0.006507345081839072, 0.0053822510566301635], [-6.63843765257587, -0.0030828768199196274, -0.002263375629411027, 0.004096854011196822, -0.00047493165150227357], [-0.0017319213562444974, -8.677558299466046e-05, -9.98881327302951e-05, 0.0007330554869802952, -0.0009365691441668828], [-0.10241075206581898, 0.0003987608732593755, -0.05666525960785342, 0.36699296002814485, -0.012942861272535845], [0.005083649068720587, 0.0002523567756902787, 0.00030105403726993506, -0.0021571049728747586, 0.002747975428592077]], "W2": [[-5.717220005168891e-06, -2.472378029246996e-06, 6.729886984545072e-06, 2.2032339353551036, 0.2305344684057019, 0.28693679019334606, -0.32718700471559176, -5.379836160142999e-06, -2.196124040053208, 1.6680791922386953e-05]], "b1": [[-2.011159655594153e-05], [-8.5033787641552e-06], [2.363260267084138e-05], [0.008278373417327262], [0.1404831875517738], [0.5834233928777305], [-1.303756408655604], [-1.8934647845825626e-05], [-0.017703184953796185], [5.730523401728412e-05]], "b2": [[-0.198158082772735]]}